[[{"Bias":0.00834373,"Function":0,"Weights":[-0.7459717674429845,2.435247349819062,0.03164472587300735,-0.08278599047077811,0.28023287956949416,-1.1999467969906719,-0.2788268095579597,-0.008432847372128275,0.5451851518615541,0.2594810305833086]},{"Bias":0.00834373,"Function":0,"Weights":[-0.048238281060233236,-0.4227148155785725,-0.2103408294727252,-0.3272923830765245,-0.12268170681567754,-0.32866849188626696,-0.08982962210596843,-0.19046357405477632,-0.12200944474195781,-0.2435304640353929]},{"Bias":0.00834373,"Function":0,"Weights":[0.2585699742148381,-0.7852947273982968,0.04973209314008802,1.3875332032165604,0.3374655298994974,1.1930914884824302,0.256307898355439,-1.493081707591763,-0.059251468735153454,-0.8657575628301801]},{"Bias":0.00834373,"Function":0,"Weights":[-0.1958632369053854,-0.032671162549975936,0.4628091631265685,-2.3657563922250104,-1.0875251900084273,2.3223201191760556,-0.6389931613326377,1.1550993811976031,1.193322257835623,0.8855161551027079]},{"Bias":0.00834373,"Function":0,"Weights":[0.017321937333693672,-0.2306403558175503,-0.8453964241098672,-0.28528743390597877,0.8240034286905511,-1.3664070394504821,0.1885397186309955,-0.27049108063950716,0.44581844491605954,-0.9179737578360186]},{"Bias":0.00834373,"Function":0,"Weights":[-0.1536809783607469,1.0089820927049449,1.6153539145426623,-0.39593896401907847,-3.755304487619193,-0.11545827867201179,1.4537306855573584,1.503077419716458,-0.22865510554032778,-0.09731305456320505]},{"Bias":0.00834373,"Function":0,"Weights":[0.8808374423464466,-0.44203016095554915,-0.16122391113894266,-0.10091296782173921,1.0118822859538905,-0.14201262540193677,0.37437421009701694,0.20345114816019447,0.620548782551132,0.6743851689752884]},{"Bias":0.00834373,"Function":0,"Weights":[-1.8539659569886433,1.1542593237001775,0.04794829809603383,-2.17990560294767,-1.4177542031864647,0.27106716726903224,-0.1889885661438551,0.2586780799625801,1.198903492583486,1.397138205676815]},{"Bias":0.00834373,"Function":0,"Weights":[-0.08712026858078167,-0.3096696635014549,-0.28014777340842295,-0.23974528498851724,-0.2506046311594841,-0.16431424291064672,-0.019350878641062365,-0.20164961222254604,-0.15856935866908964,-0.19788885349313964]},{"Bias":0.00834373,"Function":0,"Weights":[0.04596117639528222,-1.4588014040091064,-0.2727658675203435,-0.7981213997221824,-0.09740004545759659,-0.6195809520879534,-0.2166219678990258,0.0498638924526478,0.39234996425621044,-0.47154820681781157]}],[{"Bias":0.00579048,"Function":0,"Weights":[2.550498236007822,0.40515807963664163,-1.9181136646731753,3.447364434735305,0.4436555859065953,-0.808029799524977,-2.763443776110357,-4.821066821206659,0.20222897594829267,0.31731362662576873]},{"Bias":0.00579048,"Function":0,"Weights":[-0.8237594482772422,-0.2545171106464531,0.02062057917651525,-0.6579376913260586,0.5204501963304405,0.07367990824748445,-0.08860441687615954,0.9225258301569178,-0.2797438712712572,0.219814010234076]}]]