[[{"Bias":5.64838e-05,"Function":1,"Weights":[-1.504102461335098,-1.2683718848427994,-1.0326057142503968,-0.7969340452580363,-0.5611769312656432,-0.32547960767324546,-0.08974972758085074,0.14591744341153493,0.38161685840393095,0.6173460713963193]},{"Bias":5.64838e-05,"Function":1,"Weights":[-1.7532783704761203,-1.476005389096234,-1.1986465209164827,-0.9214021328365328,-0.6440883583567178,-0.36688789877685896,-0.08953311969699702,0.18773263018285277,0.46500276386269584,0.7422883061425612]},{"Bias":5.64838e-05,"Function":1,"Weights":[-1.7816168731567583,-1.5117574035539165,-1.2418334014509225,-0.9718865236481027,-0.7019258447451924,-0.4320461693423108,-0.16213607253941098,0.1078243739634748,0.3777723477663633,0.6476261958692694]},{"Bias":5.64838e-05,"Function":1,"Weights":[-1.466951305847001,-1.240721641673297,-1.0144657104994608,-0.7883552192257341,-0.5621135895519659,-0.3358635182782247,-0.10971540690447956,0.11649312896926409,0.342750667743022,0.568935220216779]},{"Bias":5.64838e-05,"Function":1,"Weights":[-1.2832505556060267,-1.0788189195359967,-0.8742893621658562,-0.6698804252957271,-0.46538442822561615,-0.26096948845552514,-0.05644011918541605,0.14797899458468938,0.3524312922547991,0.556899132824942]},{"Bias":5.64838e-05,"Function":1,"Weights":[-1.3532934201138433,-1.1349486769704913,-0.9165723234269922,-0.698323013783607,-0.4799546553401716,-0.2616408853967461,-0.043235162753349626,0.1750683947900709,0.393419348633493,0.6117014177769177]},{"Bias":5.64838e-05,"Function":1,"Weights":[-1.9553345560532733,-1.651337756101027,-1.3473874713489045,-1.0434104807967455,-0.7394092972445196,-0.43542349049234963,-0.13145090114015648,0.1725406510120215,0.47648052106420913,0.7804529064163804]},{"Bias":5.64838e-05,"Function":1,"Weights":[-1.7961225071157703,-1.5172075930531344,-1.2384069883904028,-0.9594624861275641,-0.6805967934648609,-0.4017583500021128,-0.12285706613938292,0.15602820222336516,0.43492760128610464,0.713823024448818]},{"Bias":5.64838e-05,"Function":1,"Weights":[-1.779493573235731,-1.515043857454403,-1.2505503091731476,-0.9860739879918934,-0.7217054267106717,-0.4572256193293914,-0.1927143571481172,0.07172946263314527,0.3361823634144059,0.600662480095661]},{"Bias":5.64838e-05,"Function":1,"Weights":[-1.7150718838122865,-1.4644232409490034,-1.2137326549858118,-0.9630216410225503,-0.7122711308593677,-0.4616028493961155,-0.21088115193291684,0.03976682443031426,0.29049989949354055,0.5411863437567526]}],[{"Bias":2.2733e-05,"Function":0,"Weights":[0.033435045322691884,0.026882631829064228,0.08425206288477957,0.05032308383220726,0.01241520895302164,5.1908850265252254e-05,0.05526976153775397,0.05243875503741377,0.10882372937429552,0.12502103311738585]}]]